digraph Tree {
node [shape=box] ;
0 [label="X[2] <= 4.5\nentropy = 0.971\nsamples = 80\nvalue = [48, 32]"] ;
1 [label="X[9] <= 3.5\nentropy = 0.984\nsamples = 75\nvalue = [43, 32]"] ;
0 -> 1 [labeldistance=2.5, labelangle=45, headlabel="True"] ;
2 [label="X[10] <= 1.5\nentropy = 0.896\nsamples = 16\nvalue = [5, 11]"] ;
1 -> 2 ;
3 [label="entropy = 0.0\nsamples = 7\nvalue = [0, 7]"] ;
2 -> 3 ;
4 [label="X[7] <= 1.5\nentropy = 0.991\nsamples = 9\nvalue = [5, 4]"] ;
2 -> 4 ;
5 [label="entropy = 0.0\nsamples = 3\nvalue = [3, 0]"] ;
4 -> 5 ;
6 [label="X[7] <= 2.5\nentropy = 0.918\nsamples = 6\nvalue = [2, 4]"] ;
4 -> 6 ;
7 [label="entropy = 0.0\nsamples = 3\nvalue = [0, 3]"] ;
6 -> 7 ;
8 [label="X[1] <= 2.5\nentropy = 0.918\nsamples = 3\nvalue = [2, 1]"] ;
6 -> 8 ;
9 [label="entropy = 0.0\nsamples = 1\nvalue = [0, 1]"] ;
8 -> 9 ;
10 [label="entropy = 0.0\nsamples = 2\nvalue = [2, 0]"] ;
8 -> 10 ;
11 [label="X[0] <= 1.5\nentropy = 0.939\nsamples = 59\nvalue = [38, 21]"] ;
1 -> 11 ;
12 [label="X[7] <= 1.5\nentropy = 0.989\nsamples = 41\nvalue = [23, 18]"] ;
11 -> 12 ;
13 [label="X[8] <= 3.5\nentropy = 0.918\nsamples = 24\nvalue = [16, 8]"] ;
12 -> 13 ;
14 [label="X[6] <= 4.5\nentropy = 0.998\nsamples = 17\nvalue = [9, 8]"] ;
13 -> 14 ;
15 [label="X[5] <= 4.5\nentropy = 0.961\nsamples = 13\nvalue = [5, 8]"] ;
14 -> 15 ;
16 [label="entropy = 0.0\nsamples = 4\nvalue = [0, 4]"] ;
15 -> 16 ;
17 [label="X[3] <= 4.5\nentropy = 0.991\nsamples = 9\nvalue = [5, 4]"] ;
15 -> 17 ;
18 [label="X[10] <= 1.5\nentropy = 0.954\nsamples = 8\nvalue = [5, 3]"] ;
17 -> 18 ;
19 [label="X[1] <= 3.5\nentropy = 0.971\nsamples = 5\nvalue = [2, 3]"] ;
18 -> 19 ;
20 [label="X[6] <= 3.0\nentropy = 0.918\nsamples = 3\nvalue = [2, 1]"] ;
19 -> 20 ;
21 [label="X[8] <= 2.5\nentropy = 1.0\nsamples = 2\nvalue = [1, 1]"] ;
20 -> 21 ;
22 [label="entropy = 0.0\nsamples = 1\nvalue = [0, 1]"] ;
21 -> 22 ;
23 [label="entropy = 0.0\nsamples = 1\nvalue = [1, 0]"] ;
21 -> 23 ;
24 [label="entropy = 0.0\nsamples = 1\nvalue = [1, 0]"] ;
20 -> 24 ;
25 [label="entropy = 0.0\nsamples = 2\nvalue = [0, 2]"] ;
19 -> 25 ;
26 [label="entropy = 0.0\nsamples = 3\nvalue = [3, 0]"] ;
18 -> 26 ;
27 [label="entropy = 0.0\nsamples = 1\nvalue = [0, 1]"] ;
17 -> 27 ;
28 [label="entropy = 0.0\nsamples = 4\nvalue = [4, 0]"] ;
14 -> 28 ;
29 [label="entropy = 0.0\nsamples = 7\nvalue = [7, 0]"] ;
13 -> 29 ;
30 [label="X[3] <= 2.5\nentropy = 0.977\nsamples = 17\nvalue = [7, 10]"] ;
12 -> 30 ;
31 [label="entropy = 0.0\nsamples = 8\nvalue = [0, 8]"] ;
30 -> 31 ;
32 [label="X[4] <= 2.5\nentropy = 0.764\nsamples = 9\nvalue = [7, 2]"] ;
30 -> 32 ;
33 [label="entropy = 0.0\nsamples = 5\nvalue = [5, 0]"] ;
32 -> 33 ;
34 [label="X[10] <= 1.5\nentropy = 1.0\nsamples = 4\nvalue = [2, 2]"] ;
32 -> 34 ;
35 [label="X[2] <= 3.5\nentropy = 0.918\nsamples = 3\nvalue = [1, 2]"] ;
34 -> 35 ;
36 [label="entropy = 0.0\nsamples = 2\nvalue = [0, 2]"] ;
35 -> 36 ;
37 [label="entropy = 0.0\nsamples = 1\nvalue = [1, 0]"] ;
35 -> 37 ;
38 [label="entropy = 0.0\nsamples = 1\nvalue = [1, 0]"] ;
34 -> 38 ;
39 [label="X[3] <= 1.5\nentropy = 0.65\nsamples = 18\nvalue = [15, 3]"] ;
11 -> 39 ;
40 [label="entropy = 0.0\nsamples = 2\nvalue = [0, 2]"] ;
39 -> 40 ;
41 [label="entropy = 0.337\nsamples = 16\nvalue = [15, 1]"] ;
39 -> 41 ;
42 [label="entropy = 0.0\nsamples = 5\nvalue = [5, 0]"] ;
0 -> 42 [labeldistance=2.5, labelangle=-45, headlabel="False"] ;
}